digraph Tree {
node [shape=box, style="filled, rounded", color="black", fontname="helvetica"] ;
edge [fontname="helvetica"] ;
0 [label="InsessionView <= 0.01\ngini = 0.5\nsamples = 408317\nvalue = [322921.18, 321972.76]", fillcolor="#fffffe"] ;
1 [label="NumCart <= 0.06\ngini = 0.08\nsamples = 19365\nvalue = [11760.98, 272621.11]", fillcolor="#42a1e6"] ;
0 -> 1 [labeldistance=2.5, labelangle=45, headlabel="True"] ;
2 [label="gini = 0.0\nsamples = 4579\nvalue = [0.0, 262225.61]", fillcolor="#399de5"] ;
1 -> 2 ;
3 [label="interactionTime <= 0.0\ngini = 0.5\nsamples = 14786\nvalue = [11760.98, 10395.5]", fillcolor="#fcf0e8"] ;
1 -> 3 ;
4 [label="timeOfDay <= 0.08\ngini = 0.0\nsamples = 14291\nvalue = [11516.08, 0.0]", fillcolor="#e58139"] ;
3 -> 4 ;
5 [label="gini = 0.0\nsamples = 2617\nvalue = [2062.67, 0.0]", fillcolor="#e58139"] ;
4 -> 5 ;
6 [label="gini = 0.0\nsamples = 11674\nvalue = [9453.4, 0.0]", fillcolor="#e58139"] ;
4 -> 6 ;
7 [label="maxPrice <= 0.0\ngini = 0.04\nsamples = 495\nvalue = [244.9, 10395.5]", fillcolor="#3e9fe6"] ;
3 -> 7 ;
8 [label="gini = 0.0\nsamples = 1\nvalue = [1.01, 0.0]", fillcolor="#e58139"] ;
7 -> 8 ;
9 [label="interactionTime <= 0.63\ngini = 0.04\nsamples = 494\nvalue = [243.89, 10395.5]", fillcolor="#3e9fe6"] ;
7 -> 9 ;
10 [label="NumOfEventsInJourney <= 0.45\ngini = 0.04\nsamples = 493\nvalue = [242.88, 10395.5]", fillcolor="#3e9fe6"] ;
9 -> 10 ;
11 [label="(...)", fillcolor="#C0C0C0"] ;
10 -> 11 ;
80 [label="(...)", fillcolor="#C0C0C0"] ;
10 -> 80 ;
81 [label="gini = -0.0\nsamples = 1\nvalue = [1.01, 0.0]", fillcolor="#e58139"] ;
9 -> 81 ;
82 [label="NumCart <= 0.06\ngini = 0.24\nsamples = 388952\nvalue = [311160.2, 49351.65]", fillcolor="#e99558"] ;
0 -> 82 [labeldistance=2.5, labelangle=-45, headlabel="False"] ;
83 [label="interactionTime <= 0.0\ngini = 0.22\nsamples = 385460\nvalue = [308417.58, 45179.06]", fillcolor="#e99356"] ;
82 -> 83 ;
84 [label="NumOfEventsInJourney <= 0.05\ngini = 0.09\nsamples = 376284\nvalue = [301478.63, 15215.56]", fillcolor="#e68743"] ;
83 -> 84 ;
85 [label="weekday <= 0.92\ngini = 0.09\nsamples = 375918\nvalue = [301184.03, 15179.59]", fillcolor="#e68743"] ;
84 -> 85 ;
86 [label="NumView <= 0.06\ngini = 0.07\nsamples = 312699\nvalue = [250393.02, 9712.06]", fillcolor="#e68641"] ;
85 -> 86 ;
87 [label="(...)", fillcolor="#C0C0C0"] ;
86 -> 87 ;
88 [label="(...)", fillcolor="#C0C0C0"] ;
86 -> 88 ;
91 [label="NumView <= 0.06\ngini = 0.18\nsamples = 63219\nvalue = [50791.01, 5467.53]", fillcolor="#e88f4e"] ;
85 -> 91 ;
92 [label="(...)", fillcolor="#C0C0C0"] ;
91 -> 92 ;
93 [label="(...)", fillcolor="#C0C0C0"] ;
91 -> 93 ;
94 [label="InsessionView <= 0.02\ngini = 0.19\nsamples = 366\nvalue = [294.59, 35.97]", fillcolor="#e89051"] ;
84 -> 94 ;
95 [label="interactionTime <= 0.0\ngini = 0.23\nsamples = 9\nvalue = [5.58, 35.97]", fillcolor="#58ace9"] ;
94 -> 95 ;
96 [label="(...)", fillcolor="#C0C0C0"] ;
95 -> 96 ;
97 [label="(...)", fillcolor="#C0C0C0"] ;
95 -> 97 ;
102 [label="maxPrice <= 0.0\ngini = 0.0\nsamples = 357\nvalue = [289.02, 0.0]", fillcolor="#e58139"] ;
94 -> 102 ;
103 [label="(...)", fillcolor="#C0C0C0"] ;
102 -> 103 ;
104 [label="(...)", fillcolor="#C0C0C0"] ;
102 -> 104 ;
105 [label="NumView <= 0.17\ngini = 0.31\nsamples = 9176\nvalue = [6938.95, 29963.5]", fillcolor="#67b4eb"] ;
83 -> 105 ;
106 [label="gini = 0.0\nsamples = 470\nvalue = [0.0, 27337.65]", fillcolor="#399de5"] ;
105 -> 106 ;
107 [label="InsessionView <= 0.02\ngini = 0.4\nsamples = 8706\nvalue = [6938.95, 2625.85]", fillcolor="#efb184"] ;
105 -> 107 ;
108 [label="timeOfDay <= 0.58\ngini = 0.46\nsamples = 3946\nvalue = [3122.91, 1798.53]", fillcolor="#f4caab"] ;
107 -> 108 ;
109 [label="(...)", fillcolor="#C0C0C0"] ;
108 -> 109 ;
302 [label="(...)", fillcolor="#C0C0C0"] ;
108 -> 302 ;
345 [label="NumView <= 0.28\ngini = 0.29\nsamples = 4760\nvalue = [3816.04, 827.32]", fillcolor="#eb9c64"] ;
107 -> 345 ;
346 [label="(...)", fillcolor="#C0C0C0"] ;
345 -> 346 ;
389 [label="(...)", fillcolor="#C0C0C0"] ;
345 -> 389 ;
414 [label="NumCart <= 0.17\ngini = 0.48\nsamples = 3492\nvalue = [2742.62, 4172.59]", fillcolor="#bbddf6"] ;
82 -> 414 ;
415 [label="maxPrice <= 0.05\ngini = 0.49\nsamples = 3376\nvalue = [2661.5, 3525.12]", fillcolor="#cee7f9"] ;
414 -> 415 ;
416 [label="NumOfEventsInJourney <= 0.14\ngini = 0.47\nsamples = 1214\nvalue = [965.42, 611.5]", fillcolor="#f5d1b6"] ;
415 -> 416 ;
417 [label="maxPrice <= 0.04\ngini = 0.07\nsamples = 1148\nvalue = [924.86, 35.97]", fillcolor="#e68641"] ;
416 -> 417 ;
418 [label="(...)", fillcolor="#C0C0C0"] ;
417 -> 418 ;
419 [label="(...)", fillcolor="#C0C0C0"] ;
417 -> 419 ;
432 [label="InsessionView <= 0.02\ngini = 0.12\nsamples = 66\nvalue = [40.56, 575.53]", fillcolor="#47a4e7"] ;
416 -> 432 ;
433 [label="(...)", fillcolor="#C0C0C0"] ;
432 -> 433 ;
448 [label="(...)", fillcolor="#C0C0C0"] ;
432 -> 448 ;
449 [label="NumView <= 0.06\ngini = 0.47\nsamples = 2162\nvalue = [1696.08, 2913.62]", fillcolor="#acd6f4"] ;
415 -> 449 ;
450 [label="timeOfDay <= 0.58\ngini = 0.5\nsamples = 762\nvalue = [625.19, 575.53]", fillcolor="#fdf5ef"] ;
449 -> 450 ;
451 [label="(...)", fillcolor="#C0C0C0"] ;
450 -> 451 ;
454 [label="(...)", fillcolor="#C0C0C0"] ;
450 -> 454 ;
459 [label="interactionTime <= 0.0\ngini = 0.43\nsamples = 1400\nvalue = [1070.89, 2338.09]", fillcolor="#94caf1"] ;
449 -> 459 ;
460 [label="(...)", fillcolor="#C0C0C0"] ;
459 -> 460 ;
475 [label="(...)", fillcolor="#C0C0C0"] ;
459 -> 475 ;
500 [label="timeOfDay <= 0.08\ngini = 0.2\nsamples = 116\nvalue = [81.13, 647.47]", fillcolor="#52a9e8"] ;
414 -> 500 ;
501 [label="gini = 0.0\nsamples = 21\nvalue = [16.23, 0.0]", fillcolor="#e58139"] ;
500 -> 501 ;
502 [label="timeOfDay <= 0.25\ngini = 0.17\nsamples = 95\nvalue = [64.9, 647.47]", fillcolor="#4da7e8"] ;
500 -> 502 ;
503 [label="weekday <= 0.75\ngini = 0.47\nsamples = 25\nvalue = [21.3, 35.97]", fillcolor="#aed7f4"] ;
502 -> 503 ;
504 [label="(...)", fillcolor="#C0C0C0"] ;
503 -> 504 ;
515 [label="(...)", fillcolor="#C0C0C0"] ;
503 -> 515 ;
518 [label="InsessionView <= 0.02\ngini = 0.12\nsamples = 70\nvalue = [43.61, 611.5]", fillcolor="#47a4e7"] ;
502 -> 518 ;
519 [label="(...)", fillcolor="#C0C0C0"] ;
518 -> 519 ;
542 [label="(...)", fillcolor="#C0C0C0"] ;
518 -> 542 ;
}